SVM-light Version V6.10
1 # kernel type
2 # kernel parameter -d 
1 # kernel parameter -g 
1 # kernel parameter -s 
1 # kernel parameter -r 
empty# kernel parameter -u 
24 # highest feature index 
360 # number of training documents 
36 # number of support vectors plus 1 
-5.2830302e+09 # threshold b, each following line is a SV (starting with alpha*y)
0.005210024025473103392869234085083 1:54 2:90 3:4 4:1 5:0 6:0 7:1 8:1 9:1 10:150 11:18 12:1.2 13:140 14:4.1999998 15:12.523989 16:38.844513 17:8411.2627 18:4.7026119 19:1 20:1 21:1 22:1 23:0 24:0 #
0.028616713560268181026913225650787 1:44 2:90 3:1 4:1 5:0 6:0.18951613 7:0 8:1 9:1 10:147.7493 11:20 12:1.1 13:137.52875 14:4.6272435 15:15 16:48 17:8411.2627 18:4.7026119 19:1 20:1 21:1 22:0 23:1 24:1 #
0.015265754186430058325640857219696 1:6 2:60 3:1 4:4 5:0 6:1 7:1 8:1 9:0 10:94 11:67 12:1 13:135 14:4.9000001 15:9.8999996 16:30 17:16700 18:4.8000002 19:1 20:1 21:1 22:1 23:1 24:1 #
0.58086832754997885785996913909912 1:17 2:60 3:1 4:0 5:0 6:0.18951613 7:0 8:1 9:1 10:92 11:32 12:2.0999999 13:141 14:4.1999998 15:13.9 16:52 17:7000 18:4.7026119 19:1 20:1 21:1 22:0 23:1 24:1 #
0.66973464190050435718148946762085 1:11 2:80 3:1 4:3 5:0 6:0.18951613 7:0 8:1 9:1 10:147.7493 11:17 12:0.80000001 13:137.52875 14:4.6272435 15:15 16:45 17:8600 18:4.7026119 19:1 20:1 21:1 22:0 23:1 24:1 #
-0.00024523360343653433091049009817652 1:62 2:80 3:3 4:0 5:0 6:0 7:0 8:1 9:1 10:132 11:34 12:0.80000001 13:147 14:3.5 15:17.799999 16:44 17:4700 18:4.5 19:1 20:1 21:1 22:0 23:1 24:1 #
-1 1:30 2:80 3:4 4:0 5:0 6:0 7:0 8:1 9:1 10:96 11:25 12:0.5 13:144 14:4.8000002 15:13.8 16:42 17:9000 18:4.5 19:1 20:1 21:1 22:0 23:1 24:1 #
-0.10754534938678261823952198028564 1:80 2:80 3:4 4:0 5:0 6:0 7:0 8:1 9:1 10:119 11:46 12:0.69999999 13:141 14:4.9000001 15:13.9 16:49 17:5100 18:5 19:1 20:1 21:1 22:0 23:1 24:1 #
0.03971393779283971525728702545166 1:8 2:60 3:4 4:3 5:0 6:0 7:0 8:1 9:1 10:78 11:27 12:0.89999998 13:137.52875 14:4.6272435 15:12.3 16:41 17:6700 18:4.7026119 19:1 20:1 21:1 22:1 23:0 24:1 #
0.022716399215369165176525712013245 1:65 2:70 3:1 4:0 5:0 6:0.18951613 7:0 8:1 9:1 10:93 11:66 12:1.6 13:137 14:4.5 15:11.6 16:36 17:11900 18:3.9000001 19:1 20:0 21:1 22:0 23:1 24:1 #
0.59801481509975928929634392261505 1:75 2:70 3:2.4871795 4:1 5:3 6:0.18951613 7:0.22522523 8:1 9:1 10:123 11:31 12:1.4 13:137.52875 14:4.6272435 15:12.523989 16:38.844513 17:8411.2627 18:4.7026119 19:1 20:0 21:1 22:0 23:1 24:1 #
0.084573606145568192005157470703125 1:45 2:70 3:1 4:0 5:0 6:0.18951613 7:0 8:1 9:1 10:147.7493 11:20 12:0.69999999 13:137.52875 14:4.6272435 15:12.523989 16:38.844513 17:8411.2627 18:4.7026119 19:1 20:1 21:1 22:0 23:0 24:1 #
-0.14117341352175571955740451812744 1:35 2:80 3:3 4:0 5:0 6:0 7:0 8:1 9:1 10:104 11:31 12:1.2 13:135 14:5 15:16.1 16:45 17:4300 18:5.1999998 19:1 20:1 21:1 22:0 23:1 24:1 #
0.10523739517111607710830867290497 1:62 2:90 3:2 4:1 5:0 6:0.18951613 7:0 8:1 9:1 10:94 11:25 12:1.1 13:131 14:3.7 15:12.523989 16:38.844513 17:8411.2627 18:4.7026119 19:0 20:1 21:1 22:0 23:0 24:0 #
1 1:34 2:60 3:3 4:0 5:0 6:0.18951613 7:0 8:1 9:1 10:117 11:28 12:2.2 13:138 14:3.8 15:12.523989 16:38.844513 17:8411.2627 18:4.7026119 19:1 20:1 21:1 22:0 23:0 24:1 #
-0.1295808753804408297582995146513 1:24 2:80 3:4 4:0 5:0 6:0 7:0 8:1 9:1 10:125 11:57.583641 12:3.0822835 13:136 14:3.5 15:15.4 16:43 17:5600 18:4.5 19:1 20:1 21:1 22:0 23:1 24:1 #
0.59319938415728756808675825595856 1:30 2:70 3:2 4:0 5:0 6:0.18951613 7:0 8:1 9:1 10:101 11:106 12:6.5 13:135 14:4.3000002 15:12.523989 16:38.844513 17:8411.2627 18:4.7026119 19:1 20:1 21:1 22:1 23:1 24:1 #
1 1:54 2:60 3:2.4871795 4:3 5:0.43266475 6:0.18951613 7:0.22522523 8:1 9:1 10:125 11:21 12:1.3 13:137 14:3.4000001 15:15 16:46 17:8411.2627 18:4.7026119 19:0 20:0 21:1 22:0 23:0 24:1 #
0.16789111508387577487155795097351 1:5 2:50 3:1 4:0 5:0 6:0.18951613 7:0 8:1 9:1 10:147.7493 11:25 12:0.60000002 13:137.52875 14:4.6272435 15:11.8 16:36 17:12400 18:4.7026119 19:1 20:1 21:1 22:0 23:1 24:1 #
1 1:48 2:80 3:3 4:1 5:0 6:0.18951613 7:0 8:1 9:1 10:121 11:36 12:1.2 13:137.52875 14:4.6272435 15:15.4 16:44 17:7800 18:5.1999998 19:0 20:0 21:1 22:0 23:1 24:1 #
-0.19018740672709100181236863136292 1:70 2:60 3:2.4871795 4:1.0142045 5:0.43266475 6:0.18951613 7:0.22522523 8:1 9:1 10:120 11:40 12:0.5 13:140 14:4.5999999 15:16 16:43 17:4500 18:4.9000001 19:1 20:1 21:1 22:0 23:1 24:1 #
-1 1:40 2:80 3:4 4:0 5:0 6:0 7:0 8:1 9:1 10:140 11:10 12:1.2 13:135 14:5 15:15 16:48 17:10400 18:4.5 19:1 20:1 21:1 22:0 23:1 24:1 #
-0.28863064972756546922028064727783 1:24 2:80 3:3 4:0 5:0 6:0 7:0 8:1 9:1 10:93 11:46 12:1 13:145 14:3.5 15:12.523989 16:38.844513 17:10700 18:6.3000002 19:1 20:1 21:1 22:0 23:1 24:1 #
1 1:50 2:70 3:3 4:0 5:0 6:0.18951613 7:0 8:1 9:1 10:109 11:32 12:1.4 13:139 14:4.6999998 15:12.523989 16:38.844513 17:8411.2627 18:4.7026119 19:1 20:1 21:1 22:1 23:1 24:1 #
-0.9022648925561043142806738615036 1:20 2:60 3:4 4:0 5:0 6:0 7:0 8:1 9:1 10:147.7493 11:57.583641 12:3.0822835 13:137 14:4.6999998 15:14 16:41 17:4500 18:5.5 19:1 20:1 21:1 22:0 23:1 24:1 #
-0.20904741467666099197231233119965 1:50 2:76.450775 3:3 4:0 5:0 6:0 7:0 8:1 9:1 10:92 11:19 12:1.2 13:150 14:4.8000002 15:14.9 16:48 17:4700 18:5.4000001 19:1 20:1 21:1 22:0 23:1 24:1 #
-1 1:60 2:70 3:3 4:0 5:0 6:0 7:0 8:1 9:1 10:147.7493 11:57.583641 12:3.0822835 13:137.52875 14:4.6272435 15:16.4 16:43 17:10800 18:5.6999998 19:1 20:1 21:1 22:0 23:1 24:1 #
-0.58564055065289721824228763580322 1:47 2:80 3:4 4:0 5:0 6:0 7:0 8:1 9:1 10:124 11:44 12:1 13:140 14:4.9000001 15:14.9 16:41 17:7000 18:5.6999998 19:1 20:1 21:1 22:0 23:1 24:1 #
-1 1:57 2:60 3:3 4:0 5:0 6:0 7:0 8:1 9:1 10:105 11:49 12:1.2 13:150 14:4.6999998 15:15.7 16:44 17:10400 18:6.1999998 19:1 20:1 21:1 22:0 23:1 24:1 #
0.17639075001716264523565769195557 1:64 2:70 3:1 4:0 5:0 6:0.18951613 7:0 8:1 9:1 10:107 11:15 12:3.0822835 13:137.52875 14:4.6272435 15:12.8 16:38 17:8411.2627 18:4.7026119 19:1 20:1 21:1 22:0 23:1 24:1 #
-1 1:30 2:60 3:3 4:0 5:0 6:0 7:0 8:1 9:1 10:138 11:15 12:1.1 13:135 14:4.4000001 15:12.523989 16:38.844513 17:8411.2627 18:4.7026119 19:1 20:1 21:1 22:0 23:1 24:1 #
0.21787007700231697526760399341583 1:56 2:80 3:1 4:1 5:0 6:0.18951613 7:0 8:1 9:1 10:165 11:55 12:1.8 13:137.52875 14:4.6272435 15:13.5 16:40 17:11800 18:5 19:0 20:0 21:1 22:1 23:0 24:1 #
0.23620573242897080490365624427795 1:43 2:80 3:2 4:2 5:3 6:0.18951613 7:1 8:0 9:0 10:147.7493 11:30 12:1.1 13:137.52875 14:4.6272435 15:14 16:42 17:14900 18:4.7026119 19:1 20:1 21:1 22:0 23:1 24:1 #
0.012806572328827314777299761772156 1:14 2:76.450775 3:2 4:0 5:0 6:0.18951613 7:0.22522523 8:1 9:1 10:192 11:15 12:0.80000001 13:137 14:4.1999998 15:14.3 16:40 17:9500 18:5.4000001 19:1 20:0 21:1 22:1 23:0 24:1 #
5.4056999942986294627189636230469e-07 1:27 2:60 3:2.4871795 4:1.0142045 5:0.43266475 6:0.18951613 7:0.22522523 8:1 9:1 10:76 11:44 12:3.9000001 13:127 14:4.3000002 15:12.523989 16:38.844513 17:8411.2627 18:4.7026119 19:1 20:1 21:1 22:1 23:0 24:0 #
